sequential/gru/kernel:0
(1, 240)
[[-0.92185175 -0.6210498  -0.51487255 -0.55835605 -0.64169264 -0.5029356
  -0.5769728  -0.3548764  -0.4428753  -0.8199708  -0.7403847  -0.623272
  -0.5911431  -0.8677359  -0.5297785  -0.373636   -0.8085426  -0.5786182
  -0.56421685 -0.68285453 -0.44434708 -0.44656867 -0.69507307 -0.8443401
  -0.6193901  -0.80231786 -0.5523338  -0.71038586 -0.75282514 -0.72692186
  -0.5408709  -0.58294183 -0.5542228  -0.45236576 -0.7473861  -0.7024857
  -0.40181106 -0.64807737 -0.6974825  -0.6416719   0.07491847 -0.75300056
  -0.92298985 -0.5596147  -0.71024877 -0.5816047  -0.64770854 -0.63952947
  -0.5564125  -0.6490912  -0.7543254  -0.40090907 -0.7311888  -0.75798166
  -0.5152798  -0.5550548  -0.6004868  -0.59495574 -0.6071878  -0.82267165
  -0.7861149  -0.6200854  -0.604879   -0.8041517  -0.5544737  -0.6209022
  -0.49185288 -0.7963742  -0.6602481  -0.78506863 -0.38675958 -0.14686449
  -0.5355748  -0.7628156  -0.7399162  -0.53604656 -0.6885568  -0.87533236
  -0.82245755 -0.5877187  -0.09690982 -0.1080594  -0.07108502 -0.24105349
  -0.13250037 -0.12677291  0.00244721 -0.10214967 -0.19568756  0.06845669
  -0.17339712  0.00527401 -0.28350353 -0.0860281  -0.05076464 -0.0220273
  -0.24742778 -0.06209002 -0.17630821 -0.20205808 -0.15078312 -0.0419476
  -0.05753817  0.0655108  -0.12736824 -0.15530652 -0.29379144 -0.18709068
  -0.12689367 -0.14686373  0.0055121  -0.05428919 -0.04066896 -0.33044866
  -0.09931871 -0.13145159 -0.05615935 -0.12970988 -0.12709846 -0.24034925
  -0.08479913 -0.07571428 -0.09747325 -0.19062148 -0.15139298 -0.05076098
  -0.01536955  0.0290826  -0.16217162 -0.1212846  -0.08663617 -0.02149409
  -0.19471715 -0.2728374  -0.15841213  0.04089573 -0.12458718 -0.16220325
  -0.09854089 -0.01606673 -0.22422163 -0.23035918 -0.0673007  -0.29443443
  -0.39940104 -0.08785915 -0.24219422 -0.18400042 -0.06067879 -0.34032056
  -0.12488165  0.01614152 -0.0741258   0.0172828  -0.23638937 -0.38587952
  -0.14622375 -0.06691198 -0.12885249 -0.29832342 -0.1472708  -0.12197394
   0.14382859 -0.06758104 -0.18085098  0.15189566  0.07404669 -0.09469975
   0.0810499   0.17725167 -0.12084226 -0.08957074 -0.03803399  0.09068337
   0.09353215  0.12843207  0.18327706 -0.07052928  0.15427732  0.22548212
   0.10376981  0.11578076  0.18876158 -0.1982428   0.15328346 -0.14546458
  -0.14461458 -0.103841    0.18553627 -0.13857509 -0.10598002 -0.05342063
   0.08284173 -0.05402407  0.1826209  -0.08831333 -0.07798703  0.13985671
   0.0995881   0.09907365  0.01931551  0.13993312  0.12991136  0.15512912
  -0.13800715  0.03204723  0.1208403   0.1770543  -0.05420847  0.10401259
  -0.13869934 -0.08125599 -0.11508581  0.15067731 -0.11101469 -0.02190147
   0.03980993 -0.12535025 -0.1469669   0.16902073  0.18715811 -0.17615595
  -0.17983331  0.06478907  0.07538397 -0.18406735  0.09766968  0.1859393
  -0.16870567 -0.09756359 -0.06765716 -0.08788984  0.09742165 -0.20441954
  -0.1791596  -0.06209621 -0.11607099  0.14054997 -0.17108543  0.05242802]]
sequential/gru/recurrent_kernel:0
(80, 240)
[[-0.00238828  0.06956119  0.0874024  ...  0.05764547 -0.15070103
  -0.114842  ]
 [-0.00796464  0.08185899  0.14721249 ...  0.06192261  0.01512082
  -0.02591531]
 [-0.12709957 -0.09055514 -0.12576488 ... -0.08406356 -0.04192444
  -0.05901142]
 ...
 [-0.05405733 -0.07998235  0.01138597 ... -0.08675824 -0.01500994
  -0.13343835]
 [ 0.16058396  0.02503428  0.0818687  ...  0.06056453 -0.09968365
  -0.00030214]
 [ 0.02143275  0.11315018  0.07530338 ... -0.11401931  0.10601647
  -0.11085907]]
sequential/gru/bias:0
(2, 240)
[[-1.13257551e+00 -7.71307051e-01 -9.22107935e-01 -5.81950068e-01
  -1.02357686e+00 -8.70212197e-01 -8.80160987e-01 -7.06267953e-01
  -7.36880183e-01 -9.27795231e-01 -9.76870060e-01 -8.83056939e-01
  -6.97519779e-01 -9.94452953e-01 -8.63950729e-01 -7.41815507e-01
  -9.87541974e-01 -7.98681557e-01 -9.25018966e-01 -1.08591592e+00
  -7.63162076e-01 -6.16587162e-01 -1.04644096e+00 -1.09732306e+00
  -8.81811798e-01 -1.03618991e+00 -8.78591239e-01 -1.03758788e+00
  -9.24386263e-01 -9.79729831e-01 -8.85530651e-01 -8.25398564e-01
  -7.16612518e-01 -4.56510365e-01 -8.68817329e-01 -9.18058991e-01
  -5.83583117e-01 -9.18236554e-01 -8.96320462e-01 -8.85376990e-01
  -7.66028240e-02 -1.02486718e+00 -1.11650991e+00 -8.88648689e-01
  -1.01812840e+00 -6.02435827e-01 -8.92290056e-01 -9.28378105e-01
  -7.46968091e-01 -8.98338377e-01 -9.03031766e-01 -6.44495547e-01
  -9.40959394e-01 -9.50900793e-01 -9.05758619e-01 -5.95677018e-01
  -6.11829638e-01 -9.24694479e-01 -8.46502781e-01 -1.10394382e+00
  -9.62674260e-01 -9.45526242e-01 -9.66181815e-01 -1.05706847e+00
  -9.27535892e-01 -1.05153930e+00 -7.63243318e-01 -1.14226043e+00
  -8.03978920e-01 -9.30168092e-01 -6.58165753e-01 -4.96845216e-01
  -9.63365436e-01 -1.00669694e+00 -1.15922999e+00 -6.26592815e-01
  -8.12855124e-01 -1.09983575e+00 -9.42352951e-01 -6.87481999e-01
  -7.61955082e-02 -1.17912300e-01 -1.32657915e-01 -2.17880830e-01
  -4.85050455e-02 -8.06818977e-02 -9.04016942e-02 -1.45903841e-01
  -2.56686240e-01 -8.21296424e-02 -1.33505434e-01 -9.77657661e-02
  -1.95932925e-01 -1.02196708e-01 -1.10883772e-01 -2.13030532e-01
  -7.95629099e-02 -1.11973517e-01 -6.63000941e-02 -2.91899368e-02
  -1.04024872e-01 -6.57711625e-02 -8.91343951e-02 -4.97676954e-02
  -1.18907407e-01 -6.12630062e-02 -1.07457273e-01 -8.08324814e-02
  -7.90626034e-02 -9.08215344e-02 -6.85165077e-02 -7.42319599e-02
  -1.82539746e-01 -1.49270296e-01 -6.85981363e-02 -1.37817696e-01
  -2.11303741e-01 -9.13185850e-02 -1.31829053e-01 -1.62111059e-01
  -1.00978516e-01 -5.14228940e-02 -8.96221846e-02 -6.65110275e-02
  -8.13640580e-02 -9.41712633e-02 -9.95343179e-02 -9.01541114e-02
  -5.81369437e-02 -8.08503106e-02 -1.27990440e-01 -1.26323551e-01
  -5.14716618e-02 -1.07871994e-01 -1.35567114e-01 -1.13571614e-01
  -1.94480345e-01 -7.71271363e-02 -1.60394192e-01 -6.22982308e-02
  -4.13519777e-02 -8.48739222e-02 -7.59943277e-02 -2.16660365e-01
  -2.27219909e-01 -8.85206386e-02 -3.13134611e-01 -8.59216005e-02
  -6.56516999e-02 -1.54946774e-01 -1.89348951e-01 -1.10322610e-01
  -5.61654940e-02 -3.85702699e-02 -8.54070932e-02 -3.05686384e-01
  -1.44850284e-01 -7.73047209e-02 -1.12305656e-01 -1.25035673e-01
   3.08491252e-02  2.47752015e-02 -2.99762189e-02  1.65620130e-02
   4.56176959e-02 -2.61616688e-02 -1.13959070e-02  1.99964792e-02
  -1.59495566e-02 -2.95560490e-02  2.45653298e-02  2.10548788e-02
   1.22167841e-02 -2.22433675e-02 -1.52639644e-02 -2.55994834e-02
  -3.23014073e-02  8.89464561e-03 -2.77002770e-02 -4.12165336e-02
  -1.91959813e-02 -1.58459507e-02 -3.28247920e-02  3.50707285e-02
  -2.50765327e-02  2.58918777e-02  3.11534442e-02  2.55545732e-02
  -3.31104733e-02  3.06883790e-02  2.21402142e-02  2.55309581e-03
  -2.37085819e-02  7.86380726e-04 -2.95430180e-02  1.20866820e-02
   1.45103671e-02 -2.92364564e-02 -1.89710725e-02 -2.48589516e-02
  -4.35013231e-03 -2.53992267e-02 -2.59037055e-02 -2.62344759e-02
   2.82646548e-02  7.12685869e-06 -2.74946094e-02 -3.00325472e-02
   9.04349145e-03 -2.52401177e-02  2.68879421e-02  8.63397028e-03
   1.85692869e-02 -2.99083721e-02  2.52179131e-02  1.04262540e-02
  -1.57306418e-02  2.15637796e-02  2.66432222e-02 -3.05531006e-02
  -3.52675430e-02  3.49115245e-02  3.82857360e-02 -1.77315455e-02
  -3.02925855e-02  3.09578720e-02 -1.40187852e-02 -3.64989936e-02
   3.24099250e-02  1.65555552e-02  1.00424597e-02  2.23571397e-02
  -1.98220499e-02  3.73668782e-02  2.87107863e-02  8.02757684e-03
   3.03436611e-02 -2.80015506e-02  3.04673743e-02 -1.05359405e-02]
 [-1.13257551e+00 -7.71307051e-01 -9.22107935e-01 -5.81950068e-01
  -1.02357686e+00 -8.70212197e-01 -8.80160987e-01 -7.06267953e-01
  -7.36880183e-01 -9.27795231e-01 -9.76870060e-01 -8.83056939e-01
  -6.97519779e-01 -9.94452953e-01 -8.63950729e-01 -7.41815507e-01
  -9.87541974e-01 -7.98681557e-01 -9.25018966e-01 -1.08591592e+00
  -7.63162076e-01 -6.16587162e-01 -1.04644096e+00 -1.09732306e+00
  -8.81811798e-01 -1.03618991e+00 -8.78591239e-01 -1.03758788e+00
  -9.24386263e-01 -9.79729831e-01 -8.85530651e-01 -8.25398564e-01
  -7.16612518e-01 -4.56510365e-01 -8.68817329e-01 -9.18058991e-01
  -5.83583117e-01 -9.18236554e-01 -8.96320462e-01 -8.85376990e-01
  -7.66028240e-02 -1.02486718e+00 -1.11650991e+00 -8.88648689e-01
  -1.01812840e+00 -6.02435827e-01 -8.92290056e-01 -9.28378105e-01
  -7.46968091e-01 -8.98338377e-01 -9.03031766e-01 -6.44495547e-01
  -9.40959394e-01 -9.50900793e-01 -9.05758619e-01 -5.95677018e-01
  -6.11829638e-01 -9.24694479e-01 -8.46502781e-01 -1.10394382e+00
  -9.62674260e-01 -9.45526242e-01 -9.66181815e-01 -1.05706847e+00
  -9.27535892e-01 -1.05153930e+00 -7.63243318e-01 -1.14226043e+00
  -8.03978920e-01 -9.30168092e-01 -6.58165753e-01 -4.96845216e-01
  -9.63365436e-01 -1.00669694e+00 -1.15922999e+00 -6.26592815e-01
  -8.12855124e-01 -1.09983575e+00 -9.42352951e-01 -6.87481999e-01
  -7.61955082e-02 -1.17912300e-01 -1.32657915e-01 -2.17880830e-01
  -4.85050455e-02 -8.06818977e-02 -9.04016942e-02 -1.45903841e-01
  -2.56686240e-01 -8.21296424e-02 -1.33505434e-01 -9.77657661e-02
  -1.95932925e-01 -1.02196708e-01 -1.10883772e-01 -2.13030532e-01
  -7.95629099e-02 -1.11973517e-01 -6.63000941e-02 -2.91899368e-02
  -1.04024872e-01 -6.57711625e-02 -8.91343951e-02 -4.97676954e-02
  -1.18907407e-01 -6.12630062e-02 -1.07457273e-01 -8.08324814e-02
  -7.90626034e-02 -9.08215344e-02 -6.85165077e-02 -7.42319599e-02
  -1.82539746e-01 -1.49270296e-01 -6.85981363e-02 -1.37817696e-01
  -2.11303741e-01 -9.13185850e-02 -1.31829053e-01 -1.62111059e-01
  -1.00978516e-01 -5.14228940e-02 -8.96221846e-02 -6.65110275e-02
  -8.13640580e-02 -9.41712633e-02 -9.95343179e-02 -9.01541114e-02
  -5.81369437e-02 -8.08503106e-02 -1.27990440e-01 -1.26323551e-01
  -5.14716618e-02 -1.07871994e-01 -1.35567114e-01 -1.13571614e-01
  -1.94480345e-01 -7.71271363e-02 -1.60394192e-01 -6.22982308e-02
  -4.13519777e-02 -8.48739222e-02 -7.59943277e-02 -2.16660365e-01
  -2.27219909e-01 -8.85206386e-02 -3.13134611e-01 -8.59216005e-02
  -6.56516999e-02 -1.54946774e-01 -1.89348951e-01 -1.10322610e-01
  -5.61654940e-02 -3.85702699e-02 -8.54070932e-02 -3.05686384e-01
  -1.44850284e-01 -7.73047209e-02 -1.12305656e-01 -1.25035673e-01
   2.79320721e-02  2.04449818e-02 -2.22639497e-02  1.25008570e-02
   3.88297923e-02 -2.20433325e-02 -1.17379492e-02  1.77008342e-02
  -1.05599426e-02 -2.44342741e-02  2.12873742e-02  1.73697732e-02
   1.07053770e-02 -1.66697633e-02 -1.27092265e-02 -1.60140079e-02
  -2.95358635e-02  7.20861135e-03 -2.52310522e-02 -3.84700485e-02
  -1.83319300e-02 -1.37032978e-02 -2.90341321e-02  3.00595406e-02
  -2.00874358e-02  2.31952965e-02  2.69046705e-02  2.21503917e-02
  -2.86998898e-02  2.65449733e-02  2.05277689e-02  2.70240754e-03
  -1.85674392e-02  2.01827008e-03 -2.60445997e-02  7.92742614e-03
   1.24990493e-02 -2.61408407e-02 -1.51691744e-02 -1.90690532e-02
  -6.03136839e-03 -2.24101711e-02 -2.18075514e-02 -2.41244696e-02
   2.45362613e-02 -2.40558432e-03 -2.12283358e-02 -2.47466937e-02
   9.93709266e-03 -2.03650799e-02  2.12073289e-02  9.61149950e-03
   1.83969624e-02 -2.65300199e-02  1.77631602e-02  9.94849578e-03
  -1.79558657e-02  2.02959236e-02  2.16032080e-02 -2.50487272e-02
  -3.31858881e-02  3.20529193e-02  3.36488187e-02 -1.22353863e-02
  -1.91601571e-02  2.79378258e-02 -8.78796354e-03 -3.27220373e-02
   2.96485182e-02  1.54116303e-02  7.57477526e-03  1.79567691e-02
  -1.77817550e-02  3.24899778e-02  2.63864230e-02  9.94203798e-03
   2.33981796e-02 -2.39539612e-02  2.59190630e-02 -1.07253231e-02]]
sequential/gru_1/kernel:0
(80, 300)
[[ 0.04962949 -0.08758213  0.00309435 ...  0.18432201  0.00295539
   0.00600631]
 [ 0.1244587  -0.07352123  0.08767557 ... -0.03742713  0.05002061
  -0.14005712]
 [-0.07493218  0.1829413   0.05210597 ... -0.11231121  0.02307387
   0.0034067 ]
 ...
 [ 0.06888538 -0.04898579 -0.11756151 ... -0.11871438  0.04616245
   0.10231245]
 [ 0.05875716 -0.00359549 -0.00059249 ...  0.04161972  0.07633616
  -0.02744335]
 [-0.07711864 -0.10117209 -0.15474598 ...  0.04868352  0.06380188
   0.11361007]]
sequential/gru_1/recurrent_kernel:0
(100, 300)
[[-0.09498237 -0.05050255 -0.04301115 ... -0.05341568 -0.09695531
   0.04085745]
 [-0.03029171  0.05641706  0.19098596 ... -0.01047582  0.02397976
  -0.01316118]
 [ 0.08417142 -0.01156    -0.09297509 ... -0.01014614 -0.07317014
   0.01108671]
 ...
 [-0.01638663  0.0530307  -0.13576831 ... -0.07565702 -0.00255415
   0.03872984]
 [ 0.08175801  0.05318177 -0.13911292 ... -0.05855098 -0.11518467
   0.0545041 ]
 [ 0.1095688   0.05071457  0.10075055 ...  0.00716695 -0.04351255
   0.00385276]]
sequential/gru_1/bias:0
(2, 300)
[[ 3.82947057e-01  3.03584784e-01  3.04587483e-01  3.01104516e-01
   3.13003182e-01  4.69089478e-01  5.92317998e-01  7.22957909e-01
   8.34391475e-01  2.70687670e-01  5.41719675e-01  7.69249737e-01
   6.20041788e-01  6.13426447e-01  2.34258741e-01  4.36099648e-01
   4.51036781e-01  2.91743100e-01  3.73414099e-01  9.05731618e-01
   3.89414459e-01  6.46458387e-01  6.37902260e-01  4.44224656e-01
   3.29221696e-01  4.97094244e-01  3.65073740e-01  3.87926400e-01
   6.93340898e-01  4.57230806e-01  6.20005608e-01  2.81444132e-01
   4.24200684e-01  6.30799055e-01  5.83238602e-01  4.72928435e-01
   5.49263477e-01  4.35841739e-01  2.39157125e-01  5.53491771e-01
   3.34621161e-01  4.48717475e-01  5.57516098e-01  4.94306207e-01
   3.65678668e-01  4.81014490e-01  5.84969640e-01  6.45102322e-01
   4.50250775e-01  4.52017456e-01  2.63247132e-01  4.75483567e-01
   5.96389294e-01  3.20763677e-01  3.14013422e-01  2.50294596e-01
   2.19377503e-01  5.78428209e-01 -1.61937058e-01  2.60092109e-01
   3.56059164e-01  5.35449505e-01  3.48658502e-01  6.55233920e-01
   2.35874102e-01  3.41321856e-01  5.54428875e-01  4.83304024e-01
   4.69594777e-01  2.92510837e-01  4.97214049e-01  7.99117386e-01
   4.96129960e-01  6.60831869e-01  6.51322544e-01  3.59722048e-01
   8.18782985e-01  3.17006379e-01  5.71395636e-01  4.70851034e-01
   5.25544643e-01  4.25723046e-01  3.49635065e-01  3.92088354e-01
   3.89498174e-01  3.76329660e-01  4.05160546e-01  4.26529199e-01
   2.21431494e-01  3.84912401e-01  7.53083587e-01  8.01877022e-01
   3.21251363e-01  5.19568741e-01  3.90915155e-01  5.38726151e-01
   7.03605056e-01  6.85424685e-01  3.99641126e-01  5.15933990e-01
  -2.88036406e-01 -2.06796214e-01 -3.87336314e-01 -1.45695046e-01
  -2.20043510e-01 -3.82273227e-01 -1.39523953e-01 -1.05832390e-01
  -1.39123127e-01 -3.33002865e-01 -1.66018680e-01 -3.43034714e-01
  -1.81293219e-01 -2.80024707e-01 -1.43922254e-01 -2.00595766e-01
  -1.77738041e-01 -2.83131391e-01 -3.66182327e-01 -1.63764358e-01
  -2.16684327e-01 -2.34031782e-01 -9.03260931e-02 -2.07390755e-01
  -1.53208569e-01 -2.22254798e-01 -1.18755452e-01 -2.73197532e-01
  -1.51969388e-01 -2.46362954e-01 -1.52543262e-01 -2.23028153e-01
  -2.94707239e-01 -1.59535974e-01 -1.96809515e-01 -2.47045979e-01
  -1.59907654e-01 -3.42438400e-01 -1.75421536e-01 -2.06030965e-01
  -2.22575366e-01 -7.94457421e-02 -2.46141985e-01 -1.87598169e-01
  -2.89321661e-01 -2.19354868e-01 -2.42980003e-01 -1.76112503e-01
  -2.32688069e-01 -2.81610340e-01 -1.59981087e-01 -3.10906529e-01
  -1.06792629e-01 -3.19450140e-01 -2.25751162e-01 -1.25126064e-01
  -2.02949196e-01 -2.66185671e-01  5.61308675e-03 -2.22414106e-01
  -2.18435287e-01 -1.06563069e-01 -2.15235263e-01 -2.48685077e-01
  -2.35934421e-01 -2.64257640e-01 -3.44065100e-01 -2.84685671e-01
  -1.94276094e-01 -2.32889205e-01 -3.42118531e-01 -1.10689171e-01
  -9.99494419e-02 -1.50369853e-01 -2.58743227e-01 -2.58108228e-01
  -1.80675060e-01 -1.74541727e-01 -1.96542829e-01 -1.53747350e-01
  -2.74622768e-01 -1.74029723e-01 -2.64326632e-01 -2.56395072e-01
  -2.18129024e-01 -1.42746598e-01 -2.31679171e-01 -3.37184757e-01
  -2.63002574e-01 -2.01421350e-01 -2.12268531e-01 -1.30497500e-01
  -2.41910577e-01 -1.30710185e-01 -1.65921494e-01 -2.83919811e-01
  -2.87217766e-01 -3.53628814e-01 -2.44448408e-01 -1.41475856e-01
  -4.00969153e-03  1.50540480e-02 -1.08964480e-02 -1.80710945e-02
   8.09696154e-04  1.50572620e-02 -9.07099899e-03 -6.30641123e-03
  -1.64244641e-02 -7.07032159e-03 -1.12715242e-02  8.14688765e-03
   9.23493225e-03 -4.97067813e-03  1.11500770e-02  2.40876572e-03
   1.29701030e-02 -6.07164437e-03 -8.32036790e-03 -7.93716311e-03
   2.98158149e-03 -1.23597612e-03 -9.91570763e-03  5.89252543e-03
   7.07518589e-03 -2.80690286e-03  5.95678901e-03  6.54113537e-04
   1.38311638e-02  3.48099601e-03 -4.05982556e-03  7.12633878e-03
   9.88973211e-03  5.89567563e-03  9.76242125e-03  1.08013973e-02
   1.17131358e-03  1.03908135e-02  4.70873993e-03  9.18108784e-03
   8.57178029e-03  2.94753979e-03 -7.74746481e-03 -1.08059673e-02
  -1.22387800e-02 -3.40738054e-03  1.51597373e-02 -3.00757424e-03
   1.00521958e-02 -6.04711100e-03  8.78719240e-03  1.44662234e-04
  -9.77576431e-03  6.07632473e-03 -4.06167982e-03 -5.98628493e-03
  -2.47957720e-03  6.09873794e-03 -1.98504585e-03  7.61175668e-03
   5.32573438e-04 -4.13778983e-03 -1.01638166e-02 -4.13853303e-03
  -1.19041663e-03  2.33209436e-03 -1.93355780e-03 -2.32015690e-03
   1.09708554e-03 -6.77548582e-03 -2.85544619e-03 -1.46753397e-02
  -6.36727735e-03  1.26622450e-02  1.07721426e-02  5.77395363e-03
  -1.80880371e-02  6.35175453e-03 -1.23466067e-02  4.48201690e-03
   1.20174245e-03 -5.82378311e-03  8.05970840e-03 -1.64659356e-03
   2.14788248e-04  1.28098647e-03 -7.17257662e-03 -1.13716796e-02
  -9.84604470e-03  2.35313177e-03 -1.30343507e-03  5.84212970e-03
   4.15684935e-03 -4.83895745e-03 -4.49703680e-03 -8.17681290e-03
   8.04898981e-03 -9.64976102e-03 -1.32537186e-02  9.65327024e-03]
 [ 3.82947057e-01  3.03584784e-01  3.04587483e-01  3.01104516e-01
   3.13003182e-01  4.69089478e-01  5.92317998e-01  7.22957909e-01
   8.34391475e-01  2.70687670e-01  5.41719675e-01  7.69249737e-01
   6.20041788e-01  6.13426447e-01  2.34258741e-01  4.36099648e-01
   4.51036781e-01  2.91743100e-01  3.73414099e-01  9.05731618e-01
   3.89414459e-01  6.46458387e-01  6.37902260e-01  4.44224656e-01
   3.29221696e-01  4.97094244e-01  3.65073740e-01  3.87926400e-01
   6.93340898e-01  4.57230806e-01  6.20005608e-01  2.81444132e-01
   4.24200684e-01  6.30799055e-01  5.83238602e-01  4.72928435e-01
   5.49263477e-01  4.35841739e-01  2.39157125e-01  5.53491771e-01
   3.34621161e-01  4.48717475e-01  5.57516098e-01  4.94306207e-01
   3.65678668e-01  4.81014490e-01  5.84969640e-01  6.45102322e-01
   4.50250775e-01  4.52017456e-01  2.63247132e-01  4.75483567e-01
   5.96389294e-01  3.20763677e-01  3.14013422e-01  2.50294596e-01
   2.19377503e-01  5.78428209e-01 -1.61937058e-01  2.60092109e-01
   3.56059164e-01  5.35449505e-01  3.48658502e-01  6.55233920e-01
   2.35874102e-01  3.41321856e-01  5.54428875e-01  4.83304024e-01
   4.69594777e-01  2.92510837e-01  4.97214049e-01  7.99117386e-01
   4.96129960e-01  6.60831869e-01  6.51322544e-01  3.59722048e-01
   8.18782985e-01  3.17006379e-01  5.71395636e-01  4.70851034e-01
   5.25544643e-01  4.25723046e-01  3.49635065e-01  3.92088354e-01
   3.89498174e-01  3.76329660e-01  4.05160546e-01  4.26529199e-01
   2.21431494e-01  3.84912401e-01  7.53083587e-01  8.01877022e-01
   3.21251363e-01  5.19568741e-01  3.90915155e-01  5.38726151e-01
   7.03605056e-01  6.85424685e-01  3.99641126e-01  5.15933990e-01
  -2.88036406e-01 -2.06796214e-01 -3.87336314e-01 -1.45695046e-01
  -2.20043510e-01 -3.82273227e-01 -1.39523953e-01 -1.05832390e-01
  -1.39123127e-01 -3.33002865e-01 -1.66018680e-01 -3.43034714e-01
  -1.81293219e-01 -2.80024707e-01 -1.43922254e-01 -2.00595766e-01
  -1.77738041e-01 -2.83131391e-01 -3.66182327e-01 -1.63764358e-01
  -2.16684327e-01 -2.34031782e-01 -9.03260931e-02 -2.07390755e-01
  -1.53208569e-01 -2.22254798e-01 -1.18755452e-01 -2.73197532e-01
  -1.51969388e-01 -2.46362954e-01 -1.52543262e-01 -2.23028153e-01
  -2.94707239e-01 -1.59535974e-01 -1.96809515e-01 -2.47045979e-01
  -1.59907654e-01 -3.42438400e-01 -1.75421536e-01 -2.06030965e-01
  -2.22575366e-01 -7.94457421e-02 -2.46141985e-01 -1.87598169e-01
  -2.89321661e-01 -2.19354868e-01 -2.42980003e-01 -1.76112503e-01
  -2.32688069e-01 -2.81610340e-01 -1.59981087e-01 -3.10906529e-01
  -1.06792629e-01 -3.19450140e-01 -2.25751162e-01 -1.25126064e-01
  -2.02949196e-01 -2.66185671e-01  5.61308675e-03 -2.22414106e-01
  -2.18435287e-01 -1.06563069e-01 -2.15235263e-01 -2.48685077e-01
  -2.35934421e-01 -2.64257640e-01 -3.44065100e-01 -2.84685671e-01
  -1.94276094e-01 -2.32889205e-01 -3.42118531e-01 -1.10689171e-01
  -9.99494419e-02 -1.50369853e-01 -2.58743227e-01 -2.58108228e-01
  -1.80675060e-01 -1.74541727e-01 -1.96542829e-01 -1.53747350e-01
  -2.74622768e-01 -1.74029723e-01 -2.64326632e-01 -2.56395072e-01
  -2.18129024e-01 -1.42746598e-01 -2.31679171e-01 -3.37184757e-01
  -2.63002574e-01 -2.01421350e-01 -2.12268531e-01 -1.30497500e-01
  -2.41910577e-01 -1.30710185e-01 -1.65921494e-01 -2.83919811e-01
  -2.87217766e-01 -3.53628814e-01 -2.44448408e-01 -1.41475856e-01
  -1.10402266e-02  4.06133337e-03 -7.96714332e-03 -6.33908575e-03
  -5.21367462e-03  1.34190479e-02 -1.62431002e-02 -1.14888428e-02
  -2.30767000e-02 -1.16176251e-02 -1.62416659e-02  1.23232873e-02
   1.53672695e-02 -1.21536059e-02 -2.09608255e-03 -3.96979041e-03
   1.75665244e-02 -1.09922942e-02  4.34535323e-03 -1.16694588e-02
   7.64738582e-03 -9.49813239e-03 -1.48096476e-02  1.02040386e-02
   8.88166483e-03  7.80834490e-03  9.23403632e-03 -7.95500074e-03
   2.02100612e-02  8.82194657e-03 -9.83206835e-03  3.24621960e-03
   1.54963257e-02  1.17659047e-02  1.53161846e-02  1.42946225e-02
  -5.92587702e-03  1.07767675e-02  1.06179910e-02  1.52350776e-02
   1.41586475e-02  6.03760267e-03 -1.00855064e-02 -5.93174901e-03
  -1.33960135e-02 -9.46873147e-03  6.63536368e-03 -9.64104384e-03
   1.45972976e-02 -1.67734865e-02  1.01613104e-02  6.55512093e-03
  -1.48124145e-02  1.06790271e-02  1.32657681e-03  3.45812598e-03
  -8.00656341e-03  1.51306791e-02 -9.25202575e-03  4.23609000e-03
  -4.28215228e-03  8.18466186e-04 -1.38858275e-03 -1.07454574e-02
  -6.98106736e-03  9.36886482e-03 -9.30896308e-03 -1.06801121e-02
  -4.39671706e-03 -6.70724036e-03  1.10835778e-02 -1.95208192e-02
  -1.06443483e-02  1.72904022e-02  1.69794243e-02  1.51723428e-02
  -1.94486119e-02  8.70517828e-03 -1.36742974e-02  8.64548516e-03
   7.89601635e-03 -1.10766143e-02  1.13036586e-02  3.80155654e-03
  -8.96378793e-03 -4.98422142e-03 -9.99269355e-03 -1.61602311e-02
  -9.02443100e-03  7.58629711e-03 -1.14770997e-02  1.22354692e-02
   1.08358599e-02 -7.99715519e-03 -1.13315806e-02 -1.17930928e-02
   1.33722005e-02 -1.51898619e-02 -1.06643671e-02  1.44740054e-02]]
sequential/dense/kernel:0
(100, 1)
[[-0.10749602]
 [ 0.09511765]
 [-0.09040214]
 [-0.0717203 ]
 [-0.06844968]
 [ 0.08361273]
 [-0.083019  ]
 [-0.1255682 ]
 [-0.08414007]
 [-0.07935096]
 [-0.0956967 ]
 [ 0.04662875]
 [ 0.05302694]
 [-0.07422767]
 [ 0.07271792]
 [-0.07534651]
 [ 0.09554032]
 [-0.12570836]
 [-0.08196183]
 [-0.14300409]
 [ 0.09976704]
 [-0.08805294]
 [-0.09588781]
 [ 0.1175182 ]
 [ 0.07876527]
 [ 0.10281276]
 [ 0.09873755]
 [-0.08441845]
 [ 0.11385308]
 [ 0.10026421]
 [-0.1069794 ]
 [ 0.09769288]
 [ 0.06936639]
 [ 0.10465143]
 [ 0.1068711 ]
 [ 0.09100798]
 [-0.09297927]
 [ 0.07460248]
 [ 0.08917058]
 [ 0.13574189]
 [ 0.0817087 ]
 [ 0.10186005]
 [-0.10685596]
 [-0.08241888]
 [-0.11247325]
 [-0.11996213]
 [ 0.09451102]
 [-0.07369251]
 [ 0.08564023]
 [-0.09042598]
 [ 0.11478719]
 [ 0.08009324]
 [-0.10018685]
 [ 0.09069371]
 [ 0.09868964]
 [-0.07559898]
 [-0.09561966]
 [ 0.04731246]
 [ 0.06334599]
 [ 0.11305533]
 [ 0.0636871 ]
 [-0.05438622]
 [-0.07314065]
 [-0.10691495]
 [-0.10209828]
 [ 0.10746494]
 [-0.0788233 ]
 [-0.10559984]
 [ 0.05981825]
 [-0.09910537]
 [ 0.08565951]
 [-0.12425637]
 [-0.12309584]
 [ 0.08771219]
 [ 0.05315273]
 [ 0.10949264]
 [-0.09328301]
 [ 0.12730244]
 [-0.08255228]
 [ 0.10601645]
 [ 0.06990388]
 [-0.07445345]
 [ 0.09406869]
 [ 0.07522396]
 [-0.07630579]
 [-0.09503951]
 [-0.12093747]
 [-0.07969251]
 [-0.08964715]
 [ 0.09524246]
 [-0.05626048]
 [ 0.11837794]
 [ 0.11395103]
 [-0.11658326]
 [-0.12059315]
 [-0.07725926]
 [ 0.07784104]
 [-0.0555179 ]
 [-0.08489747]
 [ 0.09553562]]
sequential/dense/bias:0
(1,)
[0.19672401]
