sequential/lstm/kernel:0
(1, 320)
[[ 9.21186060e-02  1.15462169e-01  2.20800266e-01 -3.62504750e-01
   2.87165791e-01  2.62661815e-01 -1.30548149e-01  1.93789721e-01
  -9.15531162e-03  4.32061963e-02 -1.73899725e-01  1.18915915e-01
  -5.10382950e-01 -3.31214845e-01 -7.09946826e-02  1.93831772e-01
   1.07787855e-01 -1.34572253e-01  2.16177493e-01  4.48039204e-01
   6.12474717e-02 -1.51581869e-01  2.59909898e-01  1.17384747e-01
   1.99568659e-01  3.24423388e-02  2.21979350e-01  5.62373251e-02
   1.31162396e-02  1.54755116e-01  1.63891152e-01 -1.18141510e-01
  -1.68467015e-01 -3.63476425e-01  5.06246984e-01 -4.24261510e-01
  -2.22826824e-02  1.63270995e-01  1.50846615e-01  1.01552419e-01
   6.65392578e-02  5.53821661e-02  1.21055894e-01  1.71366781e-01
   2.02206179e-01 -2.23992690e-01 -1.46465629e-01  1.24486394e-01
  -5.95553517e-02  4.40246314e-01 -3.73645425e-02 -1.31235346e-02
   3.28386389e-02  1.04132086e-01  2.65321851e-01 -2.60350555e-01
  -4.33413327e-01  3.22500169e-01  1.60661742e-01  5.55519611e-02
   9.21914726e-02  9.65894282e-01  2.35126361e-01 -6.04410246e-02
  -3.94096747e-02  2.08431944e-01 -2.08893806e-01  1.65975407e-01
   1.84143931e-02 -7.46566206e-02  4.73862980e-03 -1.60372183e-01
   7.61664063e-02  3.00453693e-01  1.94754824e-01 -1.59902990e-01
  -1.75201476e-01  8.45588371e-02  2.42586538e-01 -1.40927598e-01
  -3.33234146e-02 -7.81262740e-02  1.78459495e-01 -2.20938921e-01
   6.33498002e-03  5.41276596e-02 -1.06021367e-01  2.40157899e-02
  -8.69457889e-03  2.02924669e-01 -1.45720050e-01  4.95277308e-02
  -2.50047326e-01 -1.10443480e-01 -2.28403822e-01  1.26034454e-01
  -4.44190465e-02 -6.33659139e-02 -7.99749698e-03 -1.72289044e-01
  -1.62241817e-01 -1.64165646e-01  1.01376355e-01  1.94056466e-01
   3.62983756e-02 -2.32105218e-02 -7.89037794e-02 -9.91089866e-02
   4.58717421e-02  5.42769171e-02  7.59453773e-02 -6.86778799e-02
  -5.38385101e-02 -2.41167992e-01 -1.29985794e-01 -2.30086565e-01
   6.29734173e-02  2.86199749e-02 -2.05039322e-01 -4.36803177e-02
  -9.87151340e-02  6.92389458e-02 -1.75859369e-02 -1.27750307e-01
  -7.67403690e-04 -2.24260524e-01 -6.22280538e-02  5.09072542e-02
  -2.85658300e-01 -2.74908841e-01 -7.24793151e-02  4.62033004e-02
  -2.66946286e-01 -3.87067348e-02 -7.10812537e-03 -9.42785293e-02
  -1.63582429e-01 -3.43306363e-02  7.54541755e-02  1.24518529e-01
  -7.59652779e-02 -1.51896462e-01  1.04183935e-01 -9.98559874e-03
  -2.19953716e-01  6.15194924e-02 -8.72728080e-02  2.00426932e-02
  -8.84535536e-02 -2.20540807e-01  8.05794820e-03 -1.25285521e-01
  -1.08362556e-01  7.00877383e-02 -1.55354038e-01 -7.82079101e-02
  -1.83307052e-01  5.37987538e-02 -1.39238894e-01 -3.89000565e-01
  -1.74658060e-01 -1.81096092e-01  1.61296278e-01  3.11362371e-02
  -2.14336812e-01  1.91418767e-01  1.11598380e-01 -1.20863244e-01
   9.95559990e-02  2.14063987e-01 -9.41231400e-02 -1.56388789e-01
  -4.49944735e-02  2.64379121e-02  1.12047799e-01  1.63875222e-01
   2.13176653e-01 -1.02277689e-01  1.65447757e-01  2.73887098e-01
   1.57777905e-01  1.32876858e-01  2.22927555e-01 -2.13598892e-01
   2.14253843e-01 -1.52397037e-01 -1.76197782e-01 -1.58968642e-01
   1.98276833e-01 -1.74352035e-01 -1.16218597e-01  7.46805454e-03
   9.87469852e-02  4.29805834e-03  3.23242605e-01 -4.69980873e-02
  -1.24380909e-01  1.75984830e-01  2.31362134e-01  1.60544246e-01
   8.43756646e-02  1.49263561e-01  1.88470453e-01  2.13677257e-01
  -1.82406172e-01 -8.16882774e-02  1.20439984e-01  2.32312724e-01
  -1.02313861e-01  2.51249105e-01 -2.06589937e-01 -6.37477115e-02
  -1.81658819e-01  1.78547934e-01 -2.02346995e-01 -8.07522833e-02
   1.58027839e-02 -1.82426617e-01 -2.00812444e-01  1.68810681e-01
   2.30665982e-01 -3.51907939e-01 -2.05655098e-01 -5.95834404e-02
   1.15228385e-01 -1.74211621e-01  4.76225931e-03  1.85956135e-01
  -2.24357218e-01 -1.35604084e-01 -8.84602517e-02 -4.28604409e-02
   1.15135096e-01 -2.59406537e-01 -2.24555463e-01 -5.25035821e-02
  -1.70130104e-01  1.83664933e-01 -2.49112010e-01  1.37168616e-01
   1.05912775e-01  2.27160469e-01  2.00389504e-01 -1.21139288e-01
   2.74904191e-01  2.57876426e-01 -2.10828464e-02  1.74645275e-01
   3.27301249e-02  2.75347263e-01 -3.07242628e-02  8.55785683e-02
  -4.21857893e-01 -1.00236095e-01 -1.90518975e-01  4.63945232e-02
   1.14836082e-01 -7.06606358e-02  3.07038367e-01  3.51733029e-01
  -5.84542938e-02 -1.05264403e-01  2.60904342e-01  2.08470598e-01
   2.87852854e-01  1.03866376e-01  1.97575510e-01  1.14285797e-01
   9.42125693e-02  1.60332412e-01  3.06984540e-02 -1.04960851e-01
  -5.07962964e-02 -1.54867887e-01  7.54498065e-01 -3.02903652e-01
   1.32011056e-01  3.26637961e-02  2.42242619e-01  1.74980685e-01
   1.52396023e-01  4.67685908e-02  2.25601867e-01  2.40272835e-01
   3.19758475e-01 -1.21293716e-01 -7.03893676e-02  1.69446275e-01
  -1.14180095e-01  5.10143816e-01  1.12826824e-01 -1.23533763e-01
   3.30009818e-01  1.09541826e-01  2.94724226e-01 -5.58663271e-02
  -2.48846337e-01  1.50734276e-01  3.05734158e-01  3.35169025e-02
   1.24614462e-01  1.05866790e+00  2.84235775e-01  1.01060443e-01
  -1.39749557e-01 -7.84625765e-03 -2.55321592e-01  2.34176163e-02
   7.45331347e-02  3.39981467e-02 -6.99125901e-02 -4.03115958e-01
   4.50832583e-02  3.21328640e-01  1.62450418e-01 -1.73756480e-01
  -3.50190140e-02  2.11634502e-01  3.64108413e-01  1.56588051e-02]]
sequential/lstm/recurrent_kernel:0
(80, 320)
[[-0.09320525 -0.05068404 -0.04701738 ... -0.08479536  0.01905009
  -0.11450844]
 [-0.07829024  0.10878279  0.04887241 ... -0.10455073 -0.2520238
   0.0822813 ]
 [-0.03930264  0.01518324 -0.02358242 ...  0.03118956  0.20100039
  -0.10070723]
 ...
 [ 0.01486118  0.07277196  0.16194518 ...  0.06844081  0.16000788
   0.11987928]
 [ 0.00562145 -0.07887787 -0.08909389 ... -0.14797926 -0.00277906
   0.02965864]
 [ 0.00578853  0.23111655  0.14081025 ...  0.14617296  0.10010638
   0.0112526 ]]
sequential/lstm/bias:0
(320,)
[-0.06217013 -0.14990002 -0.05998446 -0.25944057 -0.0166521  -0.03059512
 -0.18873355 -0.10038708 -0.10034385 -0.04151276 -0.09620018 -0.07997025
 -0.25382167 -0.10710307 -0.23870744 -0.07551491 -0.02874937 -0.13893946
 -0.05404579  0.08044713 -0.09957273 -0.2124681  -0.04843233 -0.05091193
 -0.03471347 -0.07679479 -0.04589109 -0.09712294 -0.02307517 -0.03709388
 -0.05106248 -0.09772217 -0.17548424 -0.1439183   0.21881497 -0.23248869
 -0.17692116 -0.04629401 -0.17305225 -0.09460883 -0.16028553 -0.03787085
 -0.0370101  -0.07762191 -0.04025573 -0.22139315 -0.1874715  -0.05060701
 -0.19714426  0.16873787 -0.17241427 -0.07269858 -0.2510694  -0.01569218
 -0.07384714 -0.31525943 -0.17974705 -0.05759597 -0.09799054 -0.05045259
 -0.00972522  0.9443402  -0.04244119 -0.08258145 -0.15438616 -0.04474236
 -0.1856206  -0.02987164 -0.0552239  -0.14554982 -0.11266212 -0.13979842
 -0.14264241  0.10078987 -0.06941607 -0.06560638 -0.21393968 -0.05439324
  0.08013553 -0.30327773  0.9066316   0.5441686   0.89627844  0.7596811
  0.790691    0.9105412   0.7617771   0.83089876  0.87751395  0.87827307
  0.9252372   0.77884     0.8036114   0.9250239   0.6239796   0.8573391
  0.87645054  0.8301348   0.8861037   0.631532    0.83444715  0.6906139
  0.83322567  0.89805615  0.8606371   0.8546823   0.90871584  0.8206906
  0.9347026   0.8991355   0.9131709   0.9275517   0.783708    0.90780836
  0.37209412  0.79760766  0.76590383  0.9032607   0.37612376  0.81281704
  0.7942964   0.91090876  0.58644783  0.81269634  0.8186415   0.72306454
  0.738078    0.8557059   0.7155389   0.33235222  0.66767085  0.91665226
  0.40986225  0.9202422   0.75769836  0.6132915   0.880906    0.7464389
  0.7705826   0.905219    0.8339729   0.4320916   0.89997476  0.906307
  0.80529815  0.93413424  0.83829653  0.9330837   0.8244907   0.7480935
  0.85531986  0.89279366  0.78329027  0.70504725  0.7691194   0.93279874
  0.6061968   0.7823478   0.5434548   0.47016978  0.04356727  0.05387878
 -0.04337256 -0.01333543  0.05427287 -0.05062077 -0.02436956  0.02880128
 -0.02254175 -0.05196344  0.0121944   0.0458578   0.01552159 -0.01310181
 -0.0401503  -0.04631866 -0.05136232  0.02192682 -0.04343262 -0.07060005
 -0.04651029 -0.03792975 -0.05437209  0.05283967 -0.04606635  0.03375703
  0.0384424   0.03695766 -0.04385037  0.03641338  0.03157816  0.00307482
 -0.03233281  0.00131914 -0.074542    0.01274494  0.02590829 -0.03604001
 -0.05373985 -0.04719958 -0.01078178 -0.03141547 -0.05185993 -0.05345125
  0.04242317  0.02728695 -0.03767186 -0.05079028  0.02720014 -0.05601552
  0.02566868  0.02223005  0.05079559 -0.04706478  0.05310046  0.02044862
 -0.02014075  0.05351245  0.04677649 -0.03672031 -0.05636692  0.0952533
  0.04782107  0.01384404 -0.03494957  0.03455868 -0.00675504 -0.04181876
  0.05984905  0.03873732  0.01624392  0.0226896  -0.03732195  0.06453838
  0.05605961  0.01582426  0.03217229 -0.04775831  0.06279345 -0.04600985
 -0.06139047 -0.16462678 -0.05896324 -0.2607723  -0.02129376 -0.0322054
 -0.1904075  -0.10038844 -0.09814367 -0.0575518  -0.09475487 -0.07728869
 -0.25502196 -0.10333711 -0.22912884 -0.06950931 -0.03033681 -0.13988386
 -0.06432792  0.08245111 -0.09572258 -0.20746921 -0.04979918 -0.05689414
 -0.04519939 -0.07951447 -0.04424548 -0.09792888 -0.0250973  -0.0362926
 -0.04657904 -0.09791674 -0.17613643 -0.14302306  0.14736198 -0.23325968
 -0.17883492 -0.03968533 -0.18557405 -0.09677137 -0.16014369 -0.03567351
 -0.0497069  -0.08282241 -0.05066987 -0.21490426 -0.18620981 -0.05270419
 -0.18950444  0.15205327 -0.17945132 -0.07182039 -0.28912163 -0.01600002
 -0.07642367 -0.3135264  -0.17796943 -0.0353095  -0.11393458 -0.04655496
 -0.01492877  0.92618716 -0.04874196 -0.08217254 -0.15008259 -0.03326753
 -0.18819547 -0.02114576 -0.05761898 -0.14703616 -0.1115243  -0.15099898
 -0.136616    0.08821196 -0.06902269 -0.06617249 -0.21428375 -0.06672573
  0.06121566 -0.3042184 ]
sequential/lstm_1/kernel:0
(80, 400)
[[-0.20263962 -0.10231597  0.03636086 ... -0.09267612  0.01842537
  -0.03334396]
 [-0.19831067  0.11667491  0.00840873 ... -0.18376334  0.00117323
   0.05786642]
 [-0.04578198 -0.11063096 -0.10640709 ... -0.08316052  0.01059226
   0.01496799]
 ...
 [-0.11462562 -0.07870857 -0.00680227 ... -0.14717843  0.03332508
   0.1405981 ]
 [-0.19230625 -0.11365362  0.06798666 ... -0.3155107   0.04100896
  -0.07323609]
 [ 0.09579659  0.05315359  0.16472194 ...  0.17298885  0.12121078
   0.07777508]]
sequential/lstm_1/recurrent_kernel:0
(100, 400)
[[-0.01099061 -0.10195     0.23362583 ... -0.01367925  0.08390976
   0.07634933]
 [-0.13126343 -0.09277939 -0.09781894 ... -0.04889756 -0.04483025
  -0.09880644]
 [ 0.0467103   0.02332617  0.21534078 ... -0.05551413  0.11367973
   0.17906243]
 ...
 [-0.07272265  0.13031675  0.02571774 ...  0.19873011 -0.09100863
   0.0519091 ]
 [ 0.04107098  0.11628904 -0.07132823 ...  0.08337944  0.17793572
   0.0303388 ]
 [ 0.0709186  -0.03152016  0.0532447  ... -0.09288713 -0.01708317
  -0.09416249]]
sequential/lstm_1/bias:0
(400,)
[-1.37406617e-01 -1.78475067e-01 -3.10269475e-01 -3.25429738e-01
 -1.76268861e-01 -1.85513914e-01 -2.38260522e-01 -2.08783925e-01
 -2.39012748e-01 -1.55340925e-01 -2.10301653e-01 -2.37898961e-01
 -2.05728903e-01 -2.17233047e-01 -2.45871067e-01 -3.13858122e-01
 -2.96666592e-01 -4.30936307e-01 -1.56936586e-01 -1.12017572e-01
 -2.31685311e-01 -2.53328621e-01 -2.51626045e-01 -2.62885839e-01
 -4.25789237e-01 -3.62574041e-01 -1.44575477e-01 -2.50022233e-01
 -1.55615613e-01 -2.53344119e-01 -1.90889373e-01 -2.93933630e-01
 -3.55677664e-01 -7.77635798e-02 -1.13658249e-01 -3.28826904e-01
 -3.60216737e-01 -2.24744260e-01 -5.09046853e-01 -3.45489055e-01
 -1.96915939e-01 -8.23106617e-02 -1.61236763e-01 -3.70062947e-01
 -4.45722461e-01 -1.67085260e-01 -1.73415825e-01 -2.32330129e-01
 -3.70791852e-01 -3.01343083e-01 -1.46834090e-01 -2.88570404e-01
 -1.90390617e-01 -2.91436791e-01 -2.04929754e-01 -2.15351745e-01
 -4.88762766e-01 -1.35392606e-01 -9.78383422e-02 -2.50986487e-01
 -3.33978325e-01 -2.36442313e-01 -1.54242292e-01 -3.53860915e-01
 -2.69307375e-01 -1.88955441e-01 -4.29998249e-01 -2.02620104e-01
 -1.82892606e-01 -9.73445550e-02 -2.65653849e-01 -2.56482363e-01
 -2.51089215e-01 -1.01683132e-01 -4.92957711e-01 -2.69671679e-01
 -1.57900244e-01 -1.58839881e-01 -4.51937795e-01 -2.22944856e-01
 -3.66598696e-01 -1.17979005e-01 -2.55671442e-01 -2.00788110e-01
 -2.81805843e-01 -2.46190563e-01 -1.93413958e-01 -4.55387026e-01
 -3.74119401e-01 -3.31798553e-01 -9.58886147e-02 -3.72420311e-01
 -1.82939127e-01 -7.75015503e-02 -1.72335595e-01 -1.21777683e-01
 -1.23875737e-01 -4.07562375e-01 -3.04098338e-01 -1.95418686e-01
  9.77979183e-01  8.91761422e-01  7.36098945e-01  8.39579105e-01
  9.68338370e-01  9.10064101e-01  8.23405385e-01  9.48231816e-01
  8.15655053e-01  8.66819382e-01  8.74955237e-01  8.91086459e-01
  8.63185704e-01  8.63682270e-01  8.18691015e-01  8.03617716e-01
  7.98017085e-01  5.99819601e-01  9.09585476e-01  9.45939541e-01
  8.59034777e-01  8.53889525e-01  9.03985441e-01  8.38041723e-01
  6.36034310e-01  6.84045672e-01  9.05928195e-01  8.67333114e-01
  9.27074969e-01  8.29321921e-01  9.02906775e-01  7.67455757e-01
  7.35959709e-01  1.00503814e+00  9.43487108e-01  7.33168960e-01
  7.44106591e-01  8.29518318e-01  6.10362947e-01  6.81972742e-01
  9.00222957e-01  9.67199087e-01  9.13829207e-01  6.73374772e-01
  5.97052932e-01  9.15294230e-01  9.01993513e-01  8.25274765e-01
  6.62919819e-01  8.00596356e-01  9.08468306e-01  7.77467430e-01
  9.05857325e-01  7.84775317e-01  8.86905789e-01  8.50253642e-01
  5.68480134e-01  9.28546667e-01  9.21313524e-01  7.88191140e-01
  7.67705739e-01  8.31142128e-01  9.03178453e-01  7.05835760e-01
  8.33349288e-01  8.74258637e-01  6.90455258e-01  8.73047948e-01
  8.69032741e-01  9.46919978e-01  8.23283672e-01  8.65945637e-01
  8.38187218e-01  9.75818813e-01  6.93431139e-01  8.21861506e-01
  9.31073427e-01  9.44715261e-01  6.95795178e-01  8.36803317e-01
  6.68339849e-01  9.53141689e-01  8.52069676e-01  8.81991923e-01
  8.09917808e-01  8.75763535e-01  9.08289552e-01  5.53054452e-01
  6.82729065e-01  7.24606931e-01  9.27971959e-01  7.21031368e-01
  8.41365457e-01  9.83297765e-01  9.15234268e-01  9.41622674e-01
  1.01976264e+00  6.62176728e-01  7.29941010e-01  9.02683914e-01
  9.23741783e-04  1.79787297e-02 -8.12374055e-03  5.99952973e-03
  1.03986729e-02  9.71477851e-03 -2.45706504e-03 -2.93271989e-03
 -3.38807097e-03 -1.21925743e-02 -3.81204928e-03  1.36649969e-03
  1.89331884e-03 -1.39517086e-02 -2.00805441e-03 -7.45340670e-03
  2.62893224e-03 -1.04557313e-02 -5.27321175e-03  4.71625756e-03
  8.42788815e-03  1.48644503e-02 -4.39128280e-03  2.42661382e-03
  1.40280100e-02  1.44024901e-02  1.26347426e-04  2.21797149e-03
  2.68715201e-03 -6.63461676e-03 -4.82387189e-03  2.05469737e-03
  1.78880431e-02 -4.00855904e-03  2.15319241e-03  3.06360889e-03
 -7.59732071e-03 -2.48745922e-03 -4.71391715e-03  9.75645613e-03
 -6.57429628e-04  4.82041575e-03 -2.88218469e-03  6.02995697e-03
  1.41860312e-02  7.34283240e-04  2.13660160e-03  6.36369130e-03
  3.89821292e-03 -1.83757825e-03  9.24576353e-03  1.09273391e-02
 -1.44346512e-03  7.57641951e-03  2.26522749e-03 -7.58344820e-03
  7.82733131e-03 -1.32238271e-03  5.64569701e-03  6.70398120e-03
 -4.03798278e-03 -9.41610895e-03  1.30872265e-03 -5.01824031e-03
 -2.00405233e-02 -4.97803732e-04 -1.15335537e-02 -3.60416179e-03
  1.20637007e-03  4.21883585e-03 -3.32132285e-03  1.75227236e-04
  8.59735766e-04 -6.60652248e-03  2.22672499e-03  4.83871764e-03
  1.42877176e-03  6.17787568e-03  2.81820446e-03  6.59717852e-03
  1.42903049e-02  8.28950386e-03  2.15476635e-03  6.95267692e-03
  2.03703530e-03  2.63694837e-03  8.18884559e-03 -2.15500202e-02
 -1.28103914e-02  6.59981556e-03  1.22304056e-02  4.39744303e-03
  1.94748212e-02  8.02902039e-03  5.31046372e-03  1.02245072e-02
 -1.24840336e-02 -1.05785681e-02 -2.32228078e-02  5.36717195e-03
 -1.38293490e-01 -1.76272675e-01 -3.07162076e-01 -3.19513321e-01
 -1.76841706e-01 -1.82143793e-01 -2.42072999e-01 -2.14552835e-01
 -2.41212606e-01 -1.58571362e-01 -2.03990892e-01 -2.41218463e-01
 -2.09861785e-01 -2.11499617e-01 -2.55056709e-01 -3.21301281e-01
 -2.96547979e-01 -4.50082481e-01 -1.57676771e-01 -1.12055682e-01
 -2.32998982e-01 -2.57048786e-01 -2.46028438e-01 -2.68183857e-01
 -4.28295076e-01 -3.61143738e-01 -1.49612665e-01 -2.49334633e-01
 -1.56594038e-01 -2.56537855e-01 -1.85544327e-01 -2.90966153e-01
 -3.71634901e-01 -8.04803073e-02 -1.14500776e-01 -3.37020993e-01
 -3.62983018e-01 -2.28228182e-01 -5.08360803e-01 -3.46840143e-01
 -2.01946139e-01 -8.26438442e-02 -1.63605839e-01 -3.77166182e-01
 -4.56403762e-01 -1.70684502e-01 -1.77910134e-01 -2.38708273e-01
 -3.82090986e-01 -2.95501381e-01 -1.42988324e-01 -2.91639656e-01
 -1.88723505e-01 -2.84912199e-01 -2.07102925e-01 -2.21838385e-01
 -4.83470380e-01 -1.37759671e-01 -1.03411533e-01 -2.60453850e-01
 -3.36425483e-01 -2.42881119e-01 -1.49951220e-01 -3.58308017e-01
 -2.65090406e-01 -1.90714613e-01 -4.25635964e-01 -2.08026588e-01
 -1.80986345e-01 -9.60594192e-02 -2.64382750e-01 -2.63262570e-01
 -2.57030219e-01 -1.01937592e-01 -4.82285261e-01 -2.71316946e-01
 -1.52673349e-01 -1.59040511e-01 -4.56933707e-01 -2.27638647e-01
 -3.75303537e-01 -1.18095793e-01 -2.54246384e-01 -2.00408220e-01
 -2.80293733e-01 -2.46636793e-01 -1.90126777e-01 -4.65937495e-01
 -3.78224343e-01 -3.37515563e-01 -9.47319269e-02 -3.78201336e-01
 -1.82490319e-01 -7.17113614e-02 -1.73940614e-01 -1.23685084e-01
 -1.26774251e-01 -4.10050482e-01 -3.01157773e-01 -2.02425167e-01]
sequential/dense/kernel:0
(100, 1)
[[-0.13837016]
 [ 0.1484694 ]
 [-0.17856579]
 [-0.11869537]
 [-0.11225425]
 [ 0.10436835]
 [-0.13925365]
 [-0.17255512]
 [-0.1658431 ]
 [-0.12328391]
 [-0.13810371]
 [ 0.13867237]
 [ 0.15153775]
 [-0.12254845]
 [-0.14357775]
 [-0.148642  ]
 [ 0.16288011]
 [-0.22859932]
 [-0.13189301]
 [-0.1515984 ]
 [ 0.17748925]
 [-0.13240525]
 [-0.17925268]
 [ 0.16462505]
 [ 0.1577581 ]
 [ 0.18992689]
 [ 0.14772761]
 [-0.14539021]
 [ 0.1468975 ]
 [ 0.15109444]
 [-0.1471925 ]
 [ 0.14426428]
 [ 0.15054004]
 [ 0.11649553]
 [ 0.1458265 ]
 [ 0.15820776]
 [-0.20802268]
 [ 0.15498513]
 [ 0.178549  ]
 [ 0.19578105]
 [ 0.13146251]
 [ 0.14184637]
 [-0.18092589]
 [-0.14964528]
 [-0.19383962]
 [-0.16019928]
 [ 0.09351813]
 [-0.12866454]
 [ 0.1619081 ]
 [-0.1730469 ]
 [ 0.14589559]
 [ 0.14848188]
 [-0.15615436]
 [ 0.14914241]
 [ 0.13851516]
 [-0.14113836]
 [-0.20768839]
 [ 0.10868631]
 [ 0.11835016]
 [ 0.17398255]
 [ 0.12635316]
 [-0.11484134]
 [-0.11879426]
 [-0.20294371]
 [-0.1815636 ]
 [ 0.16460995]
 [-0.2016775 ]
 [-0.15568525]
 [ 0.10582669]
 [-0.14066215]
 [ 0.16819395]
 [-0.20924549]
 [-0.16304341]
 [ 0.09870843]
 [ 0.17665286]
 [ 0.15690027]
 [-0.10032226]
 [ 0.17522758]
 [-0.15141572]
 [ 0.16896282]
 [ 0.15907833]
 [-0.10063719]
 [ 0.15709145]
 [ 0.14545208]
 [-0.15570952]
 [-0.16225666]
 [-0.16557747]
 [-0.15190578]
 [-0.18485892]
 [ 0.19430798]
 [-0.10108252]
 [ 0.20805766]
 [ 0.180266  ]
 [-0.11391087]
 [-0.17276771]
 [-0.10755999]
 [ 0.06381893]
 [-0.18833661]
 [-0.17010182]
 [ 0.16893896]]
sequential/dense/bias:0
(1,)
[0.24625358]
